<?xml version="1.0"?>
<opencv_storage>
<stage12>
  <maxWeakCount>6</maxWeakCount>
  <stageThreshold>-8.8465332984924316e-01</stageThreshold>
  <weakClassifiers>
    <_>
      <internalNodes>
        0 -1 151123 1.8430752679705620e-03</internalNodes>
      <leafValues>
        3.3333334326744080e-01 -7.9679143428802490e-01</leafValues></_>
    <_>
      <internalNodes>
        0 -1 25036 5.5349699687212706e-04</internalNodes>
      <leafValues>
        2.4349741637706757e-01 -8.7213999032974243e-01</leafValues></_>
    <_>
      <internalNodes>
        0 -1 20269 1.3885236694477499e-04</internalNodes>
      <leafValues>
        2.7339342236518860e-01 -7.8171235322952271e-01</leafValues></_>
    <_>
      <internalNodes>
        0 -1 13501 -4.4427011162042618e-03</internalNodes>
      <leafValues>
        5.3975516557693481e-01 -4.4339141249656677e-01</leafValues></_>
    <_>
      <internalNodes>
        0 -1 12260 3.2178201945498586e-04</internalNodes>
      <leafValues>
        3.0318662524223328e-01 -7.3559361696243286e-01</leafValues></_>
    <_>
      <internalNodes>
        0 -1 72342 3.6203488707542419e-04</internalNodes>
      <leafValues>
        -4.1185641288757324e-01 6.5108942985534668e-01</leafValues></_></weakClassifiers></stage12>
</opencv_storage>
