<?xml version="1.0"?>
<opencv_storage>
<stage9>
  <maxWeakCount>7</maxWeakCount>
  <stageThreshold>-7.1934306621551514e-01</stageThreshold>
  <weakClassifiers>
    <_>
      <internalNodes>
        0 -1 146043 1.7551831901073456e-02</internalNodes>
      <leafValues>
        -6.3934427499771118e-01 4.7777777910232544e-01</leafValues></_>
    <_>
      <internalNodes>
        0 -1 7175 -1.0300563275814056e-01</internalNodes>
      <leafValues>
        3.0577841401100159e-01 -9.0021598339080811e-01</leafValues></_>
    <_>
      <internalNodes>
        0 -1 152140 -5.5057065765140578e-05</internalNodes>
      <leafValues>
        -7.7121931314468384e-01 2.1691580116748810e-01</leafValues></_>
    <_>
      <internalNodes>
        0 -1 146799 5.8728358708322048e-03</internalNodes>
      <leafValues>
        2.0856675505638123e-01 -9.1915762424468994e-01</leafValues></_>
    <_>
      <internalNodes>
        0 -1 8812 3.2553070923313498e-05</internalNodes>
      <leafValues>
        2.5435966253280640e-01 -8.3923423290252686e-01</leafValues></_>
    <_>
      <internalNodes>
        0 -1 49738 -1.0452333837747574e-02</internalNodes>
      <leafValues>
        3.3003991842269897e-01 -5.8852773904800415e-01</leafValues></_>
    <_>
      <internalNodes>
        0 -1 133335 -1.1821419000625610e-02</internalNodes>
      <leafValues>
        7.6017045974731445e-01 -3.0206543207168579e-01</leafValues></_></weakClassifiers></stage9>
</opencv_storage>
