<?xml version="1.0"?>
<opencv_storage>
<stage5>
  <maxWeakCount>5</maxWeakCount>
  <stageThreshold>-1.6599575281143188e+00</stageThreshold>
  <weakClassifiers>
    <_>
      <internalNodes>
        0 -1 162293 5.6157901417464018e-04</internalNodes>
      <leafValues>
        3.4387353062629700e-01 -9.1812866926193237e-01</leafValues></_>
    <_>
      <internalNodes>
        0 -1 107688 1.9391540437936783e-02</internalNodes>
      <leafValues>
        -9.1071778535842896e-01 2.7109262347221375e-01</leafValues></_>
    <_>
      <internalNodes>
        0 -1 6927 -4.6002648770809174e-02</internalNodes>
      <leafValues>
        3.4683984518051147e-01 -9.2107719182968140e-01</leafValues></_>
    <_>
      <internalNodes>
        0 -1 78444 -8.1941112875938416e-02</internalNodes>
      <leafValues>
        5.5503928661346436e-01 -5.8339375257492065e-01</leafValues></_>
    <_>
      <internalNodes>
        0 -1 64830 -1.2906137853860855e-02</internalNodes>
      <leafValues>
        4.1135770082473755e-01 -8.0764728784561157e-01</leafValues></_></weakClassifiers></stage5>
</opencv_storage>
