<?xml version="1.0"?>
<opencv_storage>
<stage13>
  <maxWeakCount>6</maxWeakCount>
  <stageThreshold>-8.2443696260452271e-01</stageThreshold>
  <weakClassifiers>
    <_>
      <internalNodes>
        0 -1 131623 2.8979687020182610e-02</internalNodes>
      <leafValues>
        -4.1690963506698608e-01 9.0123456716537476e-01</leafValues></_>
    <_>
      <internalNodes>
        0 -1 30451 -4.1310945525765419e-03</internalNodes>
      <leafValues>
        7.8704494237899780e-01 -4.0050822496414185e-01</leafValues></_>
    <_>
      <internalNodes>
        0 -1 161370 1.5702785458415747e-04</internalNodes>
      <leafValues>
        4.3488997220993042e-01 -6.5843981504440308e-01</leafValues></_>
    <_>
      <internalNodes>
        0 -1 142050 -5.5055737495422363e-02</internalNodes>
      <leafValues>
        9.7286695241928101e-01 -2.7740320563316345e-01</leafValues></_>
    <_>
      <internalNodes>
        0 -1 24536 3.6666425876319408e-04</internalNodes>
      <leafValues>
        4.7049224376678467e-01 -7.8351914882659912e-01</leafValues></_>
    <_>
      <internalNodes>
        0 -1 86845 5.2873965352773666e-02</internalNodes>
      <leafValues>
        -4.5137903094291687e-01 6.1901330947875977e-01</leafValues></_></weakClassifiers></stage13>
</opencv_storage>
